<?xml version="1.0" encoding="UTF-8" standalone="yes"?>
<PMML xmlns="http://www.dmg.org/PMML-4_4" xmlns:data="http://jpmml.org/jpmml-model/InlineTable" version="4.4">
	<Header>
		<Application name="SkLearn2PMML package" version="0.126.1"/>
		<Timestamp>2026-02-03T15:30:51Z</Timestamp>
	</Header>
	<MiningBuildTask>
		<Extension name="repr">PMMLPipeline(steps=[('scaler', RobustScaler()),
       ('model', IsolationForest(contamination=0.001, n_estimators=300, random_state=42))])</Extension>
	</MiningBuildTask>
	<DataDictionary>
		<DataField name="srcPort" optype="continuous" dataType="double"/>
		<DataField name="dstPort" optype="continuous" dataType="double"/>
		<DataField name="totalPacketsUpstream" optype="continuous" dataType="double"/>
		<DataField name="totalPacketsDownstream" optype="continuous" dataType="double"/>
		<DataField name="minPacketLength" optype="continuous" dataType="double"/>
		<DataField name="maxPacketLength" optype="continuous" dataType="double"/>
		<DataField name="meanPacketLength" optype="continuous" dataType="double"/>
		<DataField name="stddevPacketLength" optype="continuous" dataType="double"/>
		<DataField name="bytesPerSecond" optype="continuous" dataType="double"/>
		<DataField name="packetsPerSecond" optype="continuous" dataType="double"/>
		<DataField name="interArrivalTimeMean" optype="continuous" dataType="double"/>
		<DataField name="interArrivalTimeStdDev" optype="continuous" dataType="double"/>
		<DataField name="interArrivalTimeMin" optype="continuous" dataType="double"/>
		<DataField name="interArrivalTimeMax" optype="continuous" dataType="double"/>
		<DataField name="ratioBytesUpDown" optype="continuous" dataType="double"/>
		<DataField name="synCount" optype="continuous" dataType="double"/>
		<DataField name="finCount" optype="continuous" dataType="double"/>
		<DataField name="rstCount" optype="continuous" dataType="double"/>
		<DataField name="ackCount" optype="continuous" dataType="double"/>
		<DataField name="pshCount" optype="continuous" dataType="double"/>
		<DataField name="avgPacketIntervalMs" optype="continuous" dataType="double"/>
		<DataField name="synFinDiff" optype="continuous" dataType="double"/>
		<DataField name="ackRatePerMs" optype="continuous" dataType="double"/>
		<DataField name="iatMaxToMeanRatio" optype="continuous" dataType="double"/>
	</DataDictionary>
	<MiningModel functionName="regression" algorithmName="sklearn.ensemble._iforest.IsolationForest">
		<MiningSchema>
			<MiningField name="interArrivalTimeMax"/>
			<MiningField name="stddevPacketLength"/>
			<MiningField name="interArrivalTimeMin"/>
			<MiningField name="iatMaxToMeanRatio"/>
			<MiningField name="synCount"/>
			<MiningField name="totalPacketsDownstream"/>
			<MiningField name="packetsPerSecond"/>
			<MiningField name="pshCount"/>
			<MiningField name="synFinDiff"/>
			<MiningField name="bytesPerSecond"/>
			<MiningField name="rstCount"/>
			<MiningField name="interArrivalTimeStdDev"/>
			<MiningField name="finCount"/>
			<MiningField name="minPacketLength"/>
			<MiningField name="maxPacketLength"/>
			<MiningField name="ackRatePerMs"/>
			<MiningField name="avgPacketIntervalMs"/>
			<MiningField name="srcPort"/>
			<MiningField name="dstPort"/>
			<MiningField name="meanPacketLength"/>
			<MiningField name="ratioBytesUpDown"/>
			<MiningField name="ackCount"/>
			<MiningField name="totalPacketsUpstream"/>
			<MiningField name="interArrivalTimeMean"/>
		</MiningSchema>
		<Output>
			<OutputField name="rawAnomalyScore" optype="continuous" dataType="double" isFinalResult="false"/>
			<OutputField name="normalizedAnomalyScore" optype="continuous" dataType="double" feature="transformedValue" isFinalResult="false">
				<Apply function="/">
					<FieldRef field="rawAnomalyScore"/>
					<Constant dataType="double">10.244770920119917</Constant>
				</Apply>
			</OutputField>
			<OutputField name="decisionFunction" optype="continuous" dataType="double" feature="transformedValue">
				<Apply function="-">
					<Constant dataType="double">0.7028527031047189</Constant>
					<Apply function="pow">
						<Constant dataType="double">2.0</Constant>
						<Apply function="*">
							<Constant dataType="integer">-1</Constant>
							<FieldRef field="normalizedAnomalyScore"/>
						</Apply>
					</Apply>
				</Apply>
			</OutputField>
			<OutputField name="outlier" optype="categorical" dataType="boolean" feature="decision">
				<Decisions businessProblem="Is this sample an outlier?">
					<Decision value="true" description="Outlier"/>
					<Decision value="false" description="Not outlier"/>
				</Decisions>
				<Apply function="lessOrEqual">
					<FieldRef field="decisionFunction"/>
					<Constant dataType="double">0.0</Constant>
				</Apply>
			</OutputField>
			<OutputField name="predict(outlier)" optype="categorical" dataType="integer" feature="transformedValue">
				<Apply function="if">
					<FieldRef field="outlier"/>
					<Constant dataType="integer">-1</Constant>
					<Constant dataType="integer">1</Constant>
				</Apply>
				<Value value="-1"/>
				<Value value="1"/>
			</OutputField>
		</Output>
		<LocalTransformations>
			<DerivedField name="robustScaler(srcPort)" optype="continuous" dataType="double">
				<Apply function="/">
					<Apply function="-">
						<FieldRef field="srcPort"/>
						<Constant dataType="double">443.0</Constant>
					</Apply>
					<Constant dataType="double">45959.0</Constant>
				</Apply>
			</DerivedField>
			<DerivedField name="robustScaler(dstPort)" optype="continuous" dataType="double">
				<Apply function="/">
					<Apply function="-">
						<FieldRef field="dstPort"/>
						<Constant dataType="double">443.0</Constant>
					</Apply>
					<Constant dataType="double">47133.0</Constant>
				</Apply>
			</DerivedField>
			<DerivedField name="robustScaler(totalPacketsUpstream)" optype="continuous" dataType="double">
				<Apply function="-">
					<FieldRef field="totalPacketsUpstream"/>
					<Constant dataType="double">1.0</Constant>
				</Apply>
			</DerivedField>
			<DerivedField name="robustScaler(minPacketLength)" optype="continuous" dataType="double">
				<Apply function="/">
					<Apply function="-">
						<FieldRef field="minPacketLength"/>
						<Constant dataType="double">60.0</Constant>
					</Apply>
					<Constant dataType="double">30.0</Constant>
				</Apply>
			</DerivedField>
			<DerivedField name="robustScaler(maxPacketLength)" optype="continuous" dataType="double">
				<Apply function="/">
					<Apply function="-">
						<FieldRef field="maxPacketLength"/>
						<Constant dataType="double">68.0</Constant>
					</Apply>
					<Constant dataType="double">38.0</Constant>
				</Apply>
			</DerivedField>
			<DerivedField name="robustScaler(meanPacketLength)" optype="continuous" dataType="double">
				<Apply function="/">
					<Apply function="-">
						<FieldRef field="meanPacketLength"/>
						<Constant dataType="double">68.0</Constant>
					</Apply>
					<Constant dataType="double">38.0</Constant>
				</Apply>
			</DerivedField>
			<DerivedField name="robustScaler(interArrivalTimeMean)" optype="continuous" dataType="double">
				<Apply function="-">
					<FieldRef field="interArrivalTimeMean"/>
					<Constant dataType="double">1.0</Constant>
				</Apply>
			</DerivedField>
			<DerivedField name="robustScaler(ratioBytesUpDown)" optype="continuous" dataType="double">
				<Apply function="-">
					<FieldRef field="ratioBytesUpDown"/>
					<Constant dataType="double">1.0</Constant>
				</Apply>
			</DerivedField>
			<DerivedField name="robustScaler(ackCount)" optype="continuous" dataType="double">
				<Apply function="-">
					<FieldRef field="ackCount"/>
					<Constant dataType="double">1.0</Constant>
				</Apply>
			</DerivedField>
			<DerivedField name="robustScaler(avgPacketIntervalMs)" optype="continuous" dataType="double">
				<Apply function="-">
					<FieldRef field="avgPacketIntervalMs"/>
					<Constant dataType="double">0.6931466805603204</Constant>
				</Apply>
			</DerivedField>
			<DerivedField name="robustScaler(ackRatePerMs)" optype="continuous" dataType="double">
				<Apply function="/">
					<Apply function="-">
						<FieldRef field="ackRatePerMs"/>
						<Constant dataType="double">0.9999990000010001</Constant>
					</Apply>
					<Constant dataType="double">0.9999990000010001</Constant>
				</Apply>
			</DerivedField>
			<DerivedField name="float(robustScaler(srcPort))" optype="continuous" dataType="float">
				<FieldRef field="robustScaler(srcPort)"/>
			</DerivedField>
			<DerivedField name="float(robustScaler(dstPort))" optype="continuous" dataType="float">
				<FieldRef field="robustScaler(dstPort)"/>
			</DerivedField>
			<DerivedField name="float(robustScaler(totalPacketsUpstream))" optype="continuous" dataType="float">
				<FieldRef field="robustScaler(totalPacketsUpstream)"/>
			</DerivedField>
			<DerivedField name="float(totalPacketsDownstream)" optype="continuous" dataType="float">
				<FieldRef field="totalPacketsDownstream"/>
			</DerivedField>
			<DerivedField name="float(robustScaler(minPacketLength))" optype="continuous" dataType="float">
				<FieldRef field="robustScaler(minPacketLength)"/>
			</DerivedField>
			<DerivedField name="float(robustScaler(maxPacketLength))" optype="continuous" dataType="float">
				<FieldRef field="robustScaler(maxPacketLength)"/>
			</DerivedField>
			<DerivedField name="float(robustScaler(meanPacketLength))" optype="continuous" dataType="float">
				<FieldRef field="robustScaler(meanPacketLength)"/>
			</DerivedField>
			<DerivedField name="float(stddevPacketLength)" optype="continuous" dataType="float">
				<FieldRef field="stddevPacketLength"/>
			</DerivedField>
			<DerivedField name="float(bytesPerSecond)" optype="continuous" dataType="float">
				<FieldRef field="bytesPerSecond"/>
			</DerivedField>
			<DerivedField name="float(packetsPerSecond)" optype="continuous" dataType="float">
				<FieldRef field="packetsPerSecond"/>
			</DerivedField>
			<DerivedField name="float(robustScaler(interArrivalTimeMean))" optype="continuous" dataType="float">
				<FieldRef field="robustScaler(interArrivalTimeMean)"/>
			</DerivedField>
			<DerivedField name="float(interArrivalTimeStdDev)" optype="continuous" dataType="float">
				<FieldRef field="interArrivalTimeStdDev"/>
			</DerivedField>
			<DerivedField name="float(interArrivalTimeMin)" optype="continuous" dataType="float">
				<FieldRef field="interArrivalTimeMin"/>
			</DerivedField>
			<DerivedField name="float(interArrivalTimeMax)" optype="continuous" dataType="float">
				<FieldRef field="interArrivalTimeMax"/>
			</DerivedField>
			<DerivedField name="float(robustScaler(ratioBytesUpDown))" optype="continuous" dataType="float">
				<FieldRef field="robustScaler(ratioBytesUpDown)"/>
			</DerivedField>
			<DerivedField name="float(synCount)" optype="continuous" dataType="float">
				<FieldRef field="synCount"/>
			</DerivedField>
			<DerivedField name="float(finCount)" optype="continuous" dataType="float">
				<FieldRef field="finCount"/>
			</DerivedField>
			<DerivedField name="float(rstCount)" optype="continuous" dataType="float">
				<FieldRef field="rstCount"/>
			</DerivedField>
			<DerivedField name="float(robustScaler(ackCount))" optype="continuous" dataType="float">
				<FieldRef field="robustScaler(ackCount)"/>
			</DerivedField>
			<DerivedField name="float(pshCount)" optype="continuous" dataType="float">
				<FieldRef field="pshCount"/>
			</DerivedField>
			<DerivedField name="float(robustScaler(avgPacketIntervalMs))" optype="continuous" dataType="float">
				<FieldRef field="robustScaler(avgPacketIntervalMs)"/>
			</DerivedField>
			<DerivedField name="float(synFinDiff)" optype="continuous" dataType="float">
				<FieldRef field="synFinDiff"/>
			</DerivedField>
			<DerivedField name="float(robustScaler(ackRatePerMs))" optype="continuous" dataType="float">
				<FieldRef field="robustScaler(ackRatePerMs)"/>
			</DerivedField>
			<DerivedField name="float(iatMaxToMeanRatio)" optype="continuous" dataType="float">
				<FieldRef field="iatMaxToMeanRatio"/>
			</DerivedField>
			<DerivedField name="double(float(robustScaler(minPacketLength)))" optype="continuous" dataType="double">
				<FieldRef field="float(robustScaler(minPacketLength))"/>
			</DerivedField>
			<DerivedField name="double(float(interArrivalTimeMax))" optype="continuous" dataType="double">
				<FieldRef field="float(interArrivalTimeMax)"/>
			</DerivedField>
			<DerivedField name="double(float(robustScaler(maxPacketLength)))" optype="continuous" dataType="double">
				<FieldRef field="float(robustScaler(maxPacketLength))"/>
			</DerivedField>
			<DerivedField name="double(float(robustScaler(ackRatePerMs)))" optype="continuous" dataType="double">
				<FieldRef field="float(robustScaler(ackRatePerMs))"/>
			</DerivedField>
			<DerivedField name="double(float(stddevPacketLength))" optype="continuous" dataType="double">
				<FieldRef field="float(stddevPacketLength)"/>
			</DerivedField>
			<DerivedField name="double(float(interArrivalTimeMin))" optype="continuous" dataType="double">
				<FieldRef field="float(interArrivalTimeMin)"/>
			</DerivedField>
			<DerivedField name="double(float(iatMaxToMeanRatio))" optype="continuous" dataType="double">
				<FieldRef field="float(iatMaxToMeanRatio)"/>
			</DerivedField>
			<DerivedField name="double(float(robustScaler(avgPacketIntervalMs)))" optype="continuous" dataType="double">
				<FieldRef field="float(robustScaler(avgPacketIntervalMs))"/>
			</DerivedField>
			<DerivedField name="double(float(robustScaler(srcPort)))" optype="continuous" dataType="double">
				<FieldRef field="float(robustScaler(srcPort))"/>
			</DerivedField>
			<DerivedField name="double(float(synCount))" optype="continuous" dataType="double">
				<FieldRef field="float(synCount)"/>
			</DerivedField>
			<DerivedField name="double(float(totalPacketsDownstream))" optype="continuous" dataType="double">
				<FieldRef field="float(totalPacketsDownstream)"/>
			</DerivedField>
			<DerivedField name="double(float(packetsPerSecond))" optype="continuous" dataType="double">
				<FieldRef field="float(packetsPerSecond)"/>
			</DerivedField>
			<DerivedField name="double(float(pshCount))" optype="continuous" dataType="double">
				<FieldRef field="float(pshCount)"/>
			</DerivedField>
			<DerivedField name="double(float(robustScaler(dstPort)))" optype="continuous" dataType="double">
				<FieldRef field="float(robustScaler(dstPort))"/>
			</DerivedField>
			<DerivedField name="double(float(synFinDiff))" optype="continuous" dataType="double">
				<FieldRef field="float(synFinDiff)"/>
			</DerivedField>
			<DerivedField name="double(float(robustScaler(meanPacketLength)))" optype="continuous" dataType="double">
				<FieldRef field="float(robustScaler(meanPacketLength))"/>
			</DerivedField>
			<DerivedField name="double(float(robustScaler(ratioBytesUpDown)))" optype="continuous" dataType="double">
				<FieldRef field="float(robustScaler(ratioBytesUpDown))"/>
			</DerivedField>
			<DerivedField name="double(float(robustScaler(ackCount)))" optype="continuous" dataType="double">
				<FieldRef field="float(robustScaler(ackCount))"/>
			</DerivedField>
			<DerivedField name="double(float(robustScaler(totalPacketsUpstream)))" optype="continuous" dataType="double">
				<FieldRef field="float(robustScaler(totalPacketsUpstream))"/>
			</DerivedField>
			<DerivedField name="double(float(bytesPerSecond))" optype="continuous" dataType="double">
				<FieldRef field="float(bytesPerSecond)"/>
			</DerivedField>
			<DerivedField name="double(float(robustScaler(interArrivalTimeMean)))" optype="continuous" dataType="double">
				<FieldRef field="float(robustScaler(interArrivalTimeMean))"/>
			</DerivedField>
			<DerivedField name="double(float(rstCount))" optype="continuous" dataType="double">
				<FieldRef field="float(rstCount)"/>
			</DerivedField>
			<DerivedField name="double(float(interArrivalTimeStdDev))" optype="continuous" dataType="double">
				<FieldRef field="float(interArrivalTimeStdDev)"/>
			</DerivedField>
			<DerivedField name="double(float(finCount))" optype="continuous" dataType="double">
				<FieldRef field="float(finCount)"/>
			</DerivedField>
		</LocalTransformations>
		<Segmentation multipleModelMethod="average" missingPredictionTreatment="returnMissing">
			<Segment id="1">
				<True/>
				<TreeModel functionName="regression" missingValueStrategy="nullPrediction" noTrueChildStrategy="returnLastPrediction">
					<MiningSchema>
						<MiningField name="double(float(robustScaler(minPacketLength)))"/>
						<MiningField name="double(float(interArrivalTimeMax))"/>
						<MiningField name="double(float(robustScaler(maxPacketLength)))"/>
						<MiningField name="double(float(robustScaler(ackRatePerMs)))"/>
						<MiningField name="double(float(stddevPacketLength))"/>
						<MiningField name="double(float(interArrivalTimeMin))"/>
						<MiningField name="double(float(iatMaxToMeanRatio))"/>
						<MiningField name="double(float(robustScaler(avgPacketIntervalMs)))"/>
						<MiningField name="double(float(robustScaler(srcPort)))"/>
						<MiningField name="double(float(synCount))"/>
						<MiningField name="double(float(totalPacketsDownstream))"/>
						<MiningField name="double(float(packetsPerSecond))"/>
						<MiningField name="double(float(pshCount))"/>
						<MiningField name="double(float(robustScaler(dstPort)))"/>
						<MiningField name="double(float(synFinDiff))"/>
						<MiningField name="double(float(robustScaler(meanPacketLength)))"/>
					</MiningSchema>
					<Node score="3.0">
						<True/>
						<Node score="2.0">
							<SimplePredicate field="double(float(robustScaler(minPacketLength)))" operator="lessOrEqual" value="69.96509454622327"/>
							<Node score="4.0">
								<SimplePredicate field="double(float(interArrivalTimeMax))" operator="lessOrEqual" value="243357.039524938"/>
								<Node score="9.207392357589622">
									<SimplePredicate field="double(float(robustScaler(maxPacketLength)))" operator="lessOrEqual" value="31.20701395465117"/>
									<Node score="8.0">
										<SimplePredicate field="double(float(robustScaler(ackRatePerMs)))" operator="lessOrEqual" value="-0.4611223295615624"/>
										<Node score="6.0">
											<SimplePredicate field="double(float(stddevPacketLength))" operator="lessOrEqual" value="251.85037802542303"/>
											<Node score="9.851655907139286">
												<SimplePredicate field="double(float(stddevPacketLength))" operator="lessOrEqual" value="50.837572720184916"/>
												<Node score="12.116888542066473">
													<SimplePredicate field="double(float(interArrivalTimeMin))" operator="lessOrEqual" value="63213.44843023105"/>
													<Node score="15.841872036349754">
														<SimplePredicate field="double(float(iatMaxToMeanRatio))" operator="lessOrEqual" value="0.7844326546343195"/>
													</Node>
												</Node>
												<Node score="9.207392357589622">
													<SimplePredicate field="double(float(robustScaler(avgPacketIntervalMs)))" operator="lessOrEqual" value="9.978164436384034"/>
												</Node>
											</Node>
										</Node>
										<Node score="7.0">
											<SimplePredicate field="double(float(robustScaler(srcPort)))" operator="lessOrEqual" value="0.23394867497907632"/>
											<Node score="9.207392357589622">
												<SimplePredicate field="double(float(synCount))" operator="lessOrEqual" value="0.9954214096048015"/>
												<Node score="9.0">
													<SimplePredicate field="double(float(totalPacketsDownstream))" operator="lessOrEqual" value="0.5442740803324962"/>
												</Node>
											</Node>
										</Node>
										<Node score="7.0">
											<SimplePredicate field="double(float(packetsPerSecond))" operator="lessOrEqual" value="0.19846315856603836"/>
										</Node>
									</Node>
									<Node score="8.0">
										<SimplePredicate field="double(float(pshCount))" operator="lessOrEqual" value="0.1015594029340704"/>
										<Node score="11.748880484475505">
											<SimplePredicate field="double(float(robustScaler(srcPort)))" operator="lessOrEqual" value="1.1375094453848333"/>
											<Node score="13.04043800349013">
												<SimplePredicate field="double(float(robustScaler(dstPort)))" operator="lessOrEqual" value="0.5167843666284156"/>
												<Node score="11.941419697609339">
													<SimplePredicate field="double(float(synFinDiff))" operator="lessOrEqual" value="-0.4292909002067945"/>
												</Node>
											</Node>
											<Node score="14.14650919600858">
												<SimplePredicate field="double(float(robustScaler(srcPort)))" operator="lessOrEqual" value="-0.006142662489297749"/>
											</Node>
										</Node>
										<Node score="10.706640488004599">
											<SimplePredicate field="double(float(robustScaler(dstPort)))" operator="lessOrEqual" value="-0.005398766378725691"/>
											<Node score="9.851655907139286">
												<SimplePredicate field="double(float(robustScaler(dstPort)))" operator="lessOrEqual" value="-0.008726063597166335"/>
											</Node>
										</Node>
									</Node>
									<Node score="11.748880484475505">
										<SimplePredicate field="double(float(robustScaler(maxPacketLength)))" operator="lessOrEqual" value="15.723027481319548"/>
										<Node score="14.084905738773358">
											<SimplePredicate field="double(float(robustScaler(dstPort)))" operator="lessOrEqual" value="1.0199205575669887"/>
											<Node score="10.327020052042847">
												<SimplePredicate field="double(float(robustScaler(maxPacketLength)))" operator="lessOrEqual" value="-0.08745833890299488"/>
											</Node>
										</Node>
										<Node score="9.851655907139286">
											<SimplePredicate field="double(float(synFinDiff))" operator="lessOrEqual" value="-0.6991640332616698"/>
										</Node>
									</Node>
									<Node score="8.0">
										<SimplePredicate field="double(float(robustScaler(dstPort)))" operator="lessOrEqual" value="0.40909276856127347"/>
										<Node score="9.0">
											<SimplePredicate field="double(float(robustScaler(meanPacketLength)))" operator="lessOrEqual" value="22.592593138177733"/>
										</Node>
									</Node>
									<Node score="9.0">
										<SimplePredicate field="double(float(robustScaler(meanPacketLength)))" operator="lessOrEqual" value="19.155475159937307"/>
									</Node>
								</Node>
							</Node>
						</Node>
						<Node score="2.0">
							<SimplePredicate field="double(float(robustScaler(maxPacketLength)))" operator="lessOrEqual" value="102.92987640076538"/>
						</Node>
					</Node>
				</TreeModel>
			</Segment>
			<Segment id="2">
				<True/>
				<TreeModel functionName="regression" missingValueStrategy="nullPrediction" noTrueChildStrategy="returnLastPrediction">
					<MiningSchema>
						<MiningField name="double(float(robustScaler(minPacketLength)))"/>
						<MiningField name="double(float(interArrivalTimeMax))"/>
						<MiningField name="double(float(robustScaler(maxPacketLength)))"/>
						<MiningField name="double(float(robustScaler(ackRatePerMs)))"/>
						<MiningField name="double(float(robustScaler(avgPacketIntervalMs)))"/>
						<MiningField name="double(float(robustScaler(srcPort)))"/>
						<MiningField name="double(float(synCount))"/>
						<MiningField name="double(float(totalPacketsDownstream))"/>
						<MiningField name="double(float(pshCount))"/>
						<MiningField name="double(float(robustScaler(dstPort)))"/>
						<MiningField name="double(float(synFinDiff))"/>
						<MiningField name="double(float(robustScaler(meanPacketLength)))"/>
						<MiningField name="double(float(robustScaler(ratioBytesUpDown)))"/>
						<MiningField name="double(float(robustScaler(ackCount)))"/>
						<MiningField name="double(float(robustScaler(totalPacketsUpstream)))"/>
						<MiningField name="double(float(bytesPerSecond))"/>
					</MiningSchema>
					<Node score="2.0">
						<True/>
						<Node score="4.0">
							<SimplePredicate field="double(float(robustScaler(ratioBytesUpDown)))" operator="lessOrEqual" value="1.4946920234743097"/>
							<Node score="5.0">
								<SimplePredicate field="double(float(robustScaler(minPacketLength)))" operator="lessOrEqual" value="54.44288557837209"/>
								<Node score="4.0">
									<SimplePredicate field="double(float(robustScaler(ackCount)))" operator="lessOrEqual" value="0.3383607940461304"/>
									<Node score="8.0">
										<SimplePredicate field="double(float(robustScaler(totalPacketsUpstream)))" operator="lessOrEqual" value="0.20270667933053654"/>
										<Node score="9.0">
											<SimplePredicate field="double(float(robustScaler(avgPacketIntervalMs)))" operator="lessOrEqual" value="0.7411672680025029"/>
											<Node score="16.197889473271548">
												<SimplePredicate field="double(float(robustScaler(dstPort)))" operator="lessOrEqual" value="1.0526504163207222"/>
												<Node score="13.241133972149143">
													<SimplePredicate field="double(float(robustScaler(srcPort)))" operator="lessOrEqual" value="0.10232158192001531"/>
													<Node score="14.580970725835817">
														<SimplePredicate field="double(float(pshCount))" operator="lessOrEqual" value="0.5001275290269999"/>
													</Node>
												</Node>
												<Node score="12.565879322366916">
													<SimplePredicate field="double(float(synFinDiff))" operator="lessOrEqual" value="-0.44895753983825326"/>
												</Node>
											</Node>
											<Node score="10.327020052042847">
												<SimplePredicate field="double(float(robustScaler(ackRatePerMs)))" operator="lessOrEqual" value="-0.5922503120229814"/>
												<Node score="9.851655907139286">
													<SimplePredicate field="double(float(robustScaler(meanPacketLength)))" operator="lessOrEqual" value="1.364421888988146"/>
												</Node>
											</Node>
											<Node score="14.531554622062359">
												<SimplePredicate field="double(float(robustScaler(maxPacketLength)))" operator="lessOrEqual" value="16.519208285959376"/>
											</Node>
										</Node>
										<Node score="9.327020052042847">
											<SimplePredicate field="double(float(totalPacketsDownstream))" operator="lessOrEqual" value="0.6249276681919246"/>
											<Node score="7.0">
												<SimplePredicate field="double(float(robustScaler(meanPacketLength)))" operator="lessOrEqual" value="-0.5844563221450932"/>
											</Node>
										</Node>
										<Node score="7.0">
											<SimplePredicate field="double(float(synCount))" operator="lessOrEqual" value="1.3161750898306142"/>
										</Node>
									</Node>
								</Node>
								<Node score="9.207392357589622">
									<SimplePredicate field="double(float(robustScaler(avgPacketIntervalMs)))" operator="lessOrEqual" value="9.13410640101202"/>
									<Node score="7.0">
										<SimplePredicate field="double(float(synFinDiff))" operator="lessOrEqual" value="-0.07882963217740391"/>
										<Node score="6.0">
											<SimplePredicate field="double(float(robustScaler(maxPacketLength)))" operator="lessOrEqual" value="-0.3405151172520153"/>
										</Node>
										<Node score="8.0">
											<SimplePredicate field="double(float(interArrivalTimeMax))" operator="lessOrEqual" value="4206.410066470229"/>
											<Node score="9.0">
												<SimplePredicate field="double(float(interArrivalTimeMax))" operator="lessOrEqual" value="2159.453917950603"/>
											</Node>
										</Node>
									</Node>
									<Node score="8.0">
										<SimplePredicate field="double(float(bytesPerSecond))" operator="lessOrEqual" value="2.5296802248876906"/>
										<Node score="7.0">
											<SimplePredicate field="double(float(robustScaler(meanPacketLength)))" operator="lessOrEqual" value="-0.24033961858622807"/>
										</Node>
									</Node>
									<Node score="8.0">
										<SimplePredicate field="double(float(robustScaler(avgPacketIntervalMs)))" operator="lessOrEqual" value="6.507686575837524"/>
									</Node>
									<Node score="9.0">
										<SimplePredicate field="double(float(bytesPerSecond))" operator="lessOrEqual" value="3.7806576233345544"/>
									</Node>
								</Node>
								<Node score="7.0">
									<SimplePredicate field="double(float(bytesPerSecond))" operator="lessOrEqual" value="1.1404096827945884"/>
									<Node score="6.0">
										<SimplePredicate field="double(float(robustScaler(ackRatePerMs)))" operator="lessOrEqual" value="-0.9999878719746683"/>
									</Node>
								</Node>
							</Node>
							<Node score="3.0">
								<SimplePredicate field="double(float(robustScaler(dstPort)))" operator="lessOrEqual" value="0.23763265891001234"/>
							</Node>
							<Node score="5.0">
								<SimplePredicate field="double(float(robustScaler(meanPacketLength)))" operator="lessOrEqual" value="88.40835681209043"/>
							</Node>
						</Node>
						<Node score="3.0">
							<SimplePredicate field="double(float(robustScaler(minPacketLength)))" operator="lessOrEqual" value="0.6313035058127477"/>
						</Node>
					</Node>
				</TreeModel>
			</Segment>
			<Segment id="3">
				<True/>
				<TreeModel functionName="regression" missingValueStrategy="nullPrediction" noTrueChildStrategy="returnLastPrediction">
					<MiningSchema>
						<MiningField name="double(float(robustScaler(minPacketLength)))"/>
						<MiningField name="double(float(robustScaler(maxPacketLength)))"/>
						<MiningField name="double(float(robustScaler(ackRatePerMs)))"/>
						<MiningField name="double(float(stddevPacketLength))"/>
						<MiningField name="double(float(iatMaxToMeanRatio))"/>
						<MiningField name="double(float(robustScaler(avgPacketIntervalMs)))"/>
						<MiningField name="double(float(robustScaler(srcPort)))"/>
						<MiningField name="double(float(synCount))"/>
						<MiningField name="double(float(pshCount))"/>
						<MiningField name="double(float(robustScaler(dstPort)))"/>
						<MiningField name="double(float(synFinDiff))"/>
						<MiningField name="double(float(robustScaler(meanPacketLength)))"/>
						<MiningField name="double(float(robustScaler(ratioBytesUpDown)))"/>
						<MiningField name="double(float(robustScaler(ackCount)))"/>
						<MiningField name="double(float(robustScaler(totalPacketsUpstream)))"/>
						<MiningField name="double(float(robustScaler(interArrivalTimeMean)))"/>
					</MiningSchema>
					<Node score="1.0">
						<True/>
						<Node score="3.0">
							<SimplePredicate field="double(float(robustScaler(minPacketLength)))" operator="lessOrEqual" value="119.17200211566707"/>
							<Node score="4.0">
								<SimplePredicate field="double(float(robustScaler(ackCount)))" operator="lessOrEqual" value="-0.7891621397757727"/>
								<Node score="5.0">
									<SimplePredicate field="double(float(synFinDiff))" operator="lessOrEqual" value="0.31635762486437224"/>
									<Node score="7.0">
										<SimplePredicate field="double(float(iatMaxToMeanRatio))" operator="lessOrEqual" value="0.7520516560189666"/>
										<Node score="9.296251627913692">
											<SimplePredicate field="double(float(robustScaler(totalPacketsUpstream)))" operator="lessOrEqual" value="-0.1888400270551629"/>
											<Node score="6.0">
												<SimplePredicate field="double(float(robustScaler(minPacketLength)))" operator="lessOrEqual" value="-0.397018941434085"/>
											</Node>
										</Node>
										<Node score="8.0">
											<SimplePredicate field="double(float(robustScaler(srcPort)))" operator="lessOrEqual" value="1.1881172490787333"/>
											<Node score="12.27809078322522">
												<SimplePredicate field="double(float(robustScaler(minPacketLength)))" operator="lessOrEqual" value="8.783209444877997"/>
												<Node score="14.428898734038883">
													<SimplePredicate field="double(float(robustScaler(minPacketLength)))" operator="lessOrEqual" value="1.8827237773122438"/>
												</Node>
											</Node>
											<Node score="9.0">
												<SimplePredicate field="double(float(robustScaler(minPacketLength)))" operator="lessOrEqual" value="16.627008950567653"/>
											</Node>
										</Node>
										<Node score="9.0">
											<SimplePredicate field="double(float(robustScaler(srcPort)))" operator="lessOrEqual" value="1.3100020695414878"/>
											<Node score="9.0">
												<SimplePredicate field="double(float(robustScaler(maxPacketLength)))" operator="lessOrEqual" value="0.4362934885135508"/>
											</Node>
										</Node>
									</Node>
									<Node score="6.0">
										<SimplePredicate field="double(float(robustScaler(minPacketLength)))" operator="lessOrEqual" value="1.6135212737831568"/>
									</Node>
								</Node>
								<Node score="6.0">
									<SimplePredicate field="double(float(robustScaler(dstPort)))" operator="lessOrEqual" value="-0.0029607252087144337"/>
									<Node score="5.0">
										<SimplePredicate field="double(float(robustScaler(srcPort)))" operator="lessOrEqual" value="0.9171002706746157"/>
									</Node>
									<Node score="7.0">
										<SimplePredicate field="double(float(robustScaler(dstPort)))" operator="lessOrEqual" value="-0.008710412778800846"/>
									</Node>
								</Node>
							</Node>
							<Node score="8.0">
								<SimplePredicate field="double(float(robustScaler(minPacketLength)))" operator="lessOrEqual" value="62.717250229874026"/>
								<Node score="8.0">
									<SimplePredicate field="double(float(robustScaler(dstPort)))" operator="lessOrEqual" value="0.8921931148206571"/>
									<Node score="6.0">
										<SimplePredicate field="double(float(robustScaler(srcPort)))" operator="lessOrEqual" value="0.3762780768273825"/>
										<Node score="9.0">
											<SimplePredicate field="double(float(stddevPacketLength))" operator="lessOrEqual" value="241.16519187136558"/>
											<Node score="12.116888542066473">
												<SimplePredicate field="double(float(robustScaler(dstPort)))" operator="lessOrEqual" value="0.8298299418912667"/>
												<Node score="12.565879322366916">
													<SimplePredicate field="double(float(pshCount))" operator="lessOrEqual" value="0.9841834562756976"/>
												</Node>
											</Node>
											<Node score="11.023664553973461">
												<SimplePredicate field="double(float(robustScaler(ratioBytesUpDown)))" operator="lessOrEqual" value="0.09058815224508776"/>
											</Node>
										</Node>
									</Node>
									<Node score="7.0">
										<SimplePredicate field="double(float(robustScaler(ackRatePerMs)))" operator="lessOrEqual" value="-0.14633937497583926"/>
										<Node score="10.706640488004599">
											<SimplePredicate field="double(float(robustScaler(interArrivalTimeMean)))" operator="lessOrEqual" value="83959.7930489363"/>
											<Node score="9.0">
												<SimplePredicate field="double(float(robustScaler(avgPacketIntervalMs)))" operator="lessOrEqual" value="8.08660374386159"/>
											</Node>
										</Node>
									</Node>
									<Node score="8.0">
										<SimplePredicate field="double(float(robustScaler(maxPacketLength)))" operator="lessOrEqual" value="0.6065467248180317"/>
										<Node score="14.81123457021327">
											<SimplePredicate field="double(float(robustScaler(srcPort)))" operator="lessOrEqual" value="1.268474501767912"/>
										</Node>
									</Node>
									<Node score="9.207392357589622">
										<SimplePredicate field="double(float(robustScaler(meanPacketLength)))" operator="lessOrEqual" value="2.369810055679764"/>
									</Node>
								</Node>
								<Node score="9.207392357589622">
									<SimplePredicate field="double(float(robustScaler(ackCount)))" operator="lessOrEqual" value="0.6064059290133444"/>
									<Node score="9.0">
										<SimplePredicate field="double(float(synCount))" operator="lessOrEqual" value="0.5276116074657121"/>
										<Node score="8.0">
											<SimplePredicate field="double(float(robustScaler(minPacketLength)))" operator="lessOrEqual" value="12.226388608896698"/>
											<Node score="15.017693026933868">
												<SimplePredicate field="double(float(robustScaler(meanPacketLength)))" operator="lessOrEqual" value="2.1971953880221444"/>
											</Node>
										</Node>
										<Node score="9.851655907139286">
											<SimplePredicate field="double(float(robustScaler(maxPacketLength)))" operator="lessOrEqual" value="31.788540889821867"/>
										</Node>
									</Node>
									<Node score="9.0">
										<SimplePredicate field="double(float(robustScaler(dstPort)))" operator="lessOrEqual" value="1.0464263874059183"/>
										<Node score="8.0">
											<SimplePredicate field="double(float(robustScaler(dstPort)))" operator="lessOrEqual" value="0.9476158720859896"/>
										</Node>
									</Node>
									<Node score="9.207392357589622">
										<SimplePredicate field="double(float(robustScaler(dstPort)))" operator="lessOrEqual" value="1.170423145681286"/>
									</Node>
								</Node>
								<Node score="9.0">
									<SimplePredicate field="double(float(robustScaler(interArrivalTimeMean)))" operator="lessOrEqual" value="10277.371848928915"/>
									<Node score="7.0">
										<SimplePredicate field="double(float(synFinDiff))" operator="lessOrEqual" value="-0.07733070947105569"/>
									</Node>
									<Node score="9.851655907139286">
										<SimplePredicate field="double(float(robustScaler(totalPacketsUpstream)))" operator="lessOrEqual" value="0.6878220446816748"/>
									</Node>
								</Node>
								<Node score="8.0">
									<SimplePredicate field="double(float(robustScaler(avgPacketIntervalMs)))" operator="lessOrEqual" value="8.828851646124457"/>
								</Node>
								<Node score="9.851655907139286">
									<SimplePredicate field="double(float(robustScaler(interArrivalTimeMean)))" operator="lessOrEqual" value="63529.08387577538"/>
								</Node>
							</Node>
						</Node>
					</Node>
				</TreeModel>
			</Segment>
			<Segment id="4">
				<True/>
				<TreeModel functionName="regression" missingValueStrategy="nullPrediction" noTrueChildStrategy="returnLastPrediction">
					<MiningSchema>
						<MiningField name="double(float(robustScaler(minPacketLength)))"/>
						<MiningField name="double(float(interArrivalTimeMax))"/>
						<MiningField name="double(float(robustScaler(maxPacketLength)))"/>
						<MiningField name="double(float(robustScaler(ackRatePerMs)))"/>
						<MiningField name="double(float(interArrivalTimeMin))"/>
						<MiningField name="double(float(robustScaler(avgPacketIntervalMs)))"/>
						<MiningField name="double(float(robustScaler(srcPort)))"/>
						<MiningField name="double(float(totalPacketsDownstream))"/>
						<MiningField name="double(float(pshCount))"/>
						<MiningField name="double(float(robustScaler(dstPort)))"/>
						<MiningField name="double(float(synFinDiff))"/>
						<MiningField name="double(float(robustScaler(meanPacketLength)))"/>
						<MiningField name="double(float(bytesPerSecond))"/>
						<MiningField name="double(float(robustScaler(interArrivalTimeMean)))"/>
						<MiningField name="double(float(rstCount))"/>
						<MiningField name="double(float(interArrivalTimeStdDev))"/>
					</MiningSchema>
					<Node score="1.0">
						<True/>
						<Node score="2.0">
							<SimplePredicate field="double(float(rstCount))" operator="lessOrEqual" value="0.3466626528402151"/>
							<Node score="6.0">
								<SimplePredicate field="double(float(robustScaler(interArrivalTimeMean)))" operator="lessOrEqual" value="352323.82531232614"/>
								<Node score="7.0">
									<SimplePredicate field="double(float(robustScaler(avgPacketIntervalMs)))" operator="lessOrEqual" value="1.1598878063553764"/>
									<Node score="8.0">
										<SimplePredicate field="double(float(synFinDiff))" operator="lessOrEqual" value="0.9887242400966232"/>
										<Node score="9.851655907139286">
											<SimplePredicate field="double(float(robustScaler(srcPort)))" operator="lessOrEqual" value="0.016866114988354483"/>
											<Node score="10.327020052042847">
												<SimplePredicate field="double(float(robustScaler(ackRatePerMs)))" operator="lessOrEqual" value="-0.41012762552598847"/>
												<Node score="10.327020052042847">
													<SimplePredicate field="double(float(robustScaler(maxPacketLength)))" operator="lessOrEqual" value="2.045563231356444"/>
													<Node score="12.817255833106158">
														<SimplePredicate field="double(float(robustScaler(maxPacketLength)))" operator="lessOrEqual" value="1.748478479142159"/>
													</Node>
												</Node>
												<Node score="10.327020052042847">
													<SimplePredicate field="double(float(robustScaler(meanPacketLength)))" operator="lessOrEqual" value="3.4680779739543404"/>
												</Node>
											</Node>
											<Node score="15.056544133713256">
												<SimplePredicate field="double(float(robustScaler(minPacketLength)))" operator="lessOrEqual" value="12.263392483716897"/>
												<Node score="11.53553663538496">
													<SimplePredicate field="double(float(synFinDiff))" operator="lessOrEqual" value="-0.2839464248548944"/>
												</Node>
											</Node>
											<Node score="9.851655907139286">
												<SimplePredicate field="double(float(robustScaler(srcPort)))" operator="lessOrEqual" value="-0.004842313021806533"/>
											</Node>
										</Node>
										<Node score="7.0">
											<SimplePredicate field="double(float(robustScaler(ackRatePerMs)))" operator="lessOrEqual" value="-0.10933547984312075"/>
											<Node score="12.565879322366916">
												<SimplePredicate field="double(float(robustScaler(maxPacketLength)))" operator="lessOrEqual" value="12.303193264405051"/>
												<Node score="13.744698479920103">
													<SimplePredicate field="double(float(robustScaler(meanPacketLength)))" operator="lessOrEqual" value="0.630514731147044"/>
												</Node>
											</Node>
										</Node>
										<Node score="11.748880484475505">
											<SimplePredicate field="double(float(pshCount))" operator="lessOrEqual" value="0.42541691913521706"/>
											<Node score="13.744698479920103">
												<SimplePredicate field="double(float(robustScaler(dstPort)))" operator="lessOrEqual" value="-0.0033589791607536905"/>
											</Node>
										</Node>
										<Node score="13.334385296159002">
											<SimplePredicate field="double(float(robustScaler(minPacketLength)))" operator="lessOrEqual" value="16.427596389710683"/>
										</Node>
									</Node>
									<Node score="9.0">
										<SimplePredicate field="double(float(robustScaler(ackRatePerMs)))" operator="lessOrEqual" value="-0.7364733129443942"/>
										<Node score="7.0">
											<SimplePredicate field="double(float(robustScaler(srcPort)))" operator="lessOrEqual" value="0.9009215557975601"/>
											<Node score="8.0">
												<SimplePredicate field="double(float(robustScaler(srcPort)))" operator="lessOrEqual" value="0.8445345921246831"/>
												<Node score="9.0">
													<SimplePredicate field="double(float(robustScaler(srcPort)))" operator="lessOrEqual" value="0.7805046942160404"/>
												</Node>
											</Node>
										</Node>
										<Node score="10.327020052042847">
											<SimplePredicate field="double(float(robustScaler(dstPort)))" operator="lessOrEqual" value="-0.008340378510864421"/>
											<Node score="8.0">
												<SimplePredicate field="double(float(robustScaler(srcPort)))" operator="lessOrEqual" value="1.221803350257949"/>
											</Node>
										</Node>
										<Node score="8.0">
											<SimplePredicate field="double(float(robustScaler(srcPort)))" operator="lessOrEqual" value="1.0712182833486483"/>
										</Node>
									</Node>
									<Node score="8.0">
										<SimplePredicate field="double(float(robustScaler(srcPort)))" operator="lessOrEqual" value="-0.008418497809402568"/>
										<Node score="7.0">
											<SimplePredicate field="double(float(robustScaler(dstPort)))" operator="lessOrEqual" value="0.8832578118148005"/>
										</Node>
										<Node score="9.0">
											<SimplePredicate field="double(float(robustScaler(dstPort)))" operator="lessOrEqual" value="1.2128776419541871"/>
										</Node>
									</Node>
									<Node score="8.0">
										<SimplePredicate field="double(float(robustScaler(dstPort)))" operator="lessOrEqual" value="0.9548613084181163"/>
									</Node>
								</Node>
								<Node score="7.0">
									<SimplePredicate field="double(float(robustScaler(dstPort)))" operator="lessOrEqual" value="0.301911566124625"/>
									<Node score="7.7066404880045996">
										<SimplePredicate field="double(float(totalPacketsDownstream))" operator="lessOrEqual" value="0.0784698948629526"/>
									</Node>
									<Node score="7.0">
										<SimplePredicate field="double(float(interArrivalTimeMax))" operator="lessOrEqual" value="28481.77250529303"/>
										<Node score="8.0">
											<SimplePredicate field="double(float(interArrivalTimeMin))" operator="lessOrEqual" value="17873.16121826794"/>
											<Node score="10.327020052042847">
												<SimplePredicate field="double(float(robustScaler(meanPacketLength)))" operator="lessOrEqual" value="1.4411497794650479"/>
											</Node>
										</Node>
									</Node>
									<Node score="9.851655907139286">
										<SimplePredicate field="double(float(pshCount))" operator="lessOrEqual" value="1.2603204926756773"/>
										<Node score="9.0">
											<SimplePredicate field="double(float(robustScaler(interArrivalTimeMean)))" operator="lessOrEqual" value="33224.88905553235"/>
										</Node>
									</Node>
								</Node>
								<Node score="6.0">
									<SimplePredicate field="double(float(bytesPerSecond))" operator="lessOrEqual" value="2.3415056091965933"/>
									<Node score="9.0">
										<SimplePredicate field="double(float(interArrivalTimeStdDev))" operator="lessOrEqual" value="21805.803517017295"/>
										<Node score="8.0">
											<SimplePredicate field="double(float(pshCount))" operator="lessOrEqual" value="0.6732637023894413"/>
											<Node score="9.0">
												<SimplePredicate field="double(float(robustScaler(interArrivalTimeMean)))" operator="lessOrEqual" value="192269.2748635054"/>
											</Node>
										</Node>
										<Node score="9.0">
											<SimplePredicate field="double(float(robustScaler(dstPort)))" operator="lessOrEqual" value="0.8244633896586121"/>
										</Node>
									</Node>
								</Node>
							</Node>
						</Node>
					</Node>
				</TreeModel>
			</Segment>
			<Segment id="5">
				<True/>
				<TreeModel functionName="regression" missingValueStrategy="nullPrediction" noTrueChildStrategy="returnLastPrediction">
					<MiningSchema>
						<MiningField name="double(float(robustScaler(minPacketLength)))"/>
						<MiningField name="double(float(robustScaler(maxPacketLength)))"/>
						<MiningField name="double(float(robustScaler(ackRatePerMs)))"/>
						<MiningField name="double(float(stddevPacketLength))"/>
						<MiningField name="double(float(interArrivalTimeMin))"/>
						<MiningField name="double(float(iatMaxToMeanRatio))"/>
						<MiningField name="double(float(robustScaler(avgPacketIntervalMs)))"/>
						<MiningField name="double(float(robustScaler(srcPort)))"/>
						<MiningField name="double(float(synCount))"/>
						<MiningField name="double(float(robustScaler(dstPort)))"/>
						<MiningField name="double(float(synFinDiff))"/>
						<MiningField name="double(float(robustScaler(meanPacketLength)))"/>
						<MiningField name="double(float(robustScaler(ratioBytesUpDown)))"/>
						<MiningField name="double(float(robustScaler(totalPacketsUpstream)))"/>
						<MiningField name="double(float(robustScaler(interArrivalTimeMean)))"/>
						<MiningField name="double(float(rstCount))"/>
						<MiningField name="double(float(finCount))"/>
					</MiningSchema>
					<Node score="3.0">
						<True/>
						<Node score="2.0">
							<SimplePredicate field="double(float(iatMaxToMeanRatio))" operator="lessOrEqual" value="0.6951800075547969"/>
							<Node score="6.0">
								<SimplePredicate field="double(float(rstCount))" operator="lessOrEqual" value="0.6924949463887582"/>
								<Node score="7.0">
									<SimplePredicate field="double(float(robustScaler(srcPort)))" operator="lessOrEqual" value="0.18404684854360204"/>
									<Node score="6.0">
										<SimplePredicate field="double(float(robustScaler(srcPort)))" operator="lessOrEqual" value="0.09141038395737835"/>
										<Node score="9.207392357589622">
											<SimplePredicate field="double(float(robustScaler(minPacketLength)))" operator="lessOrEqual" value="117.15915381436729"/>
											<Node score="11.941419697609339">
												<SimplePredicate field="double(float(robustScaler(maxPacketLength)))" operator="lessOrEqual" value="9.129363262375042"/>
												<Node score="9.0">
													<SimplePredicate field="double(float(synFinDiff))" operator="lessOrEqual" value="-0.5632907438852315"/>
													<Node score="11.023664553973461">
														<SimplePredicate field="double(float(robustScaler(minPacketLength)))" operator="lessOrEqual" value="0.6241707175524962"/>
													</Node>
												</Node>
												<Node score="16.108974839839505">
													<SimplePredicate field="double(float(synFinDiff))" operator="lessOrEqual" value="0.9722348600496701"/>
												</Node>
											</Node>
											<Node score="9.0">
												<SimplePredicate field="double(float(robustScaler(meanPacketLength)))" operator="lessOrEqual" value="17.27158088346605"/>
												<Node score="8.0">
													<SimplePredicate field="double(float(robustScaler(maxPacketLength)))" operator="lessOrEqual" value="12.457246942948812"/>
												</Node>
											</Node>
											<Node score="9.0">
												<SimplePredicate field="double(float(robustScaler(meanPacketLength)))" operator="lessOrEqual" value="29.441975702901722"/>
											</Node>
										</Node>
									</Node>
									<Node score="5.0">
										<SimplePredicate field="double(float(robustScaler(minPacketLength)))" operator="lessOrEqual" value="9.452786940189672"/>
									</Node>
									<Node score="6.0">
										<SimplePredicate field="double(float(robustScaler(minPacketLength)))" operator="lessOrEqual" value="15.53423388138866"/>
									</Node>
								</Node>
								<Node score="7.0">
									<SimplePredicate field="double(float(synCount))" operator="lessOrEqual" value="0.7208872426864166"/>
									<Node score="7.0">
										<SimplePredicate field="double(float(finCount))" operator="lessOrEqual" value="0.832056953027871"/>
										<Node score="12.27809078322522">
											<SimplePredicate field="double(float(robustScaler(srcPort)))" operator="lessOrEqual" value="1.2296083072195505"/>
											<Node score="12.817255833106158">
												<SimplePredicate field="double(float(robustScaler(ackRatePerMs)))" operator="lessOrEqual" value="-0.28665560590413197"/>
												<Node score="9.851655907139286">
													<SimplePredicate field="double(float(robustScaler(srcPort)))" operator="lessOrEqual" value="0.897930493040247"/>
												</Node>
											</Node>
											<Node score="13.887805867394853">
												<SimplePredicate field="double(float(robustScaler(dstPort)))" operator="lessOrEqual" value="-0.00547266444894764"/>
											</Node>
										</Node>
										<Node score="8.0">
											<SimplePredicate field="double(float(robustScaler(maxPacketLength)))" operator="lessOrEqual" value="50.20445260866521"/>
											<Node score="11.296251627913692">
												<SimplePredicate field="double(float(robustScaler(maxPacketLength)))" operator="lessOrEqual" value="13.194249843513898"/>
											</Node>
										</Node>
									</Node>
									<Node score="7.0">
										<SimplePredicate field="double(float(robustScaler(srcPort)))" operator="lessOrEqual" value="1.0762052795680361"/>
										<Node score="8.0">
											<SimplePredicate field="double(float(robustScaler(srcPort)))" operator="lessOrEqual" value="0.9144718558646641"/>
											<Node score="9.0">
												<SimplePredicate field="double(float(robustScaler(srcPort)))" operator="lessOrEqual" value="0.8053242378959151"/>
											</Node>
										</Node>
									</Node>
									<Node score="9.207392357589622">
										<SimplePredicate field="double(float(robustScaler(dstPort)))" operator="lessOrEqual" value="-0.006697954576752112"/>
										<Node score="10.327020052042847">
											<SimplePredicate field="double(float(robustScaler(srcPort)))" operator="lessOrEqual" value="1.2316745119490378"/>
										</Node>
									</Node>
								</Node>
								<Node score="9.207392357589622">
									<SimplePredicate field="double(float(robustScaler(dstPort)))" operator="lessOrEqual" value="-0.0034045249428094225"/>
									<Node score="8.0">
										<SimplePredicate field="double(float(robustScaler(srcPort)))" operator="lessOrEqual" value="1.0971475345314015"/>
										<Node score="9.207392357589622">
											<SimplePredicate field="double(float(robustScaler(srcPort)))" operator="lessOrEqual" value="0.9600681321924691"/>
											<Node score="9.0">
												<SimplePredicate field="double(float(robustScaler(dstPort)))" operator="lessOrEqual" value="-0.008320260026331738"/>
											</Node>
										</Node>
									</Node>
									<Node score="8.0">
										<SimplePredicate field="double(float(robustScaler(dstPort)))" operator="lessOrEqual" value="-0.007879491644572524"/>
									</Node>
									<Node score="8.0">
										<SimplePredicate field="double(float(robustScaler(srcPort)))" operator="lessOrEqual" value="1.168364866257404"/>
									</Node>
								</Node>
							</Node>
						</Node>
						<Node score="3.0">
							<SimplePredicate field="double(float(robustScaler(ackRatePerMs)))" operator="lessOrEqual" value="-0.9950360788274297"/>
							<Node score="7.0">
								<SimplePredicate field="double(float(robustScaler(interArrivalTimeMean)))" operator="lessOrEqual" value="798975.2880080008"/>
								<Node score="7.0">
									<SimplePredicate field="double(float(robustScaler(ratioBytesUpDown)))" operator="lessOrEqual" value="-0.11499811758706391"/>
									<Node score="7.0">
										<SimplePredicate field="double(float(robustScaler(maxPacketLength)))" operator="lessOrEqual" value="5.865814918756485"/>
										<Node score="7.0">
											<SimplePredicate field="double(float(robustScaler(avgPacketIntervalMs)))" operator="lessOrEqual" value="8.372283069388594"/>
										</Node>
										<Node score="9.0">
											<SimplePredicate field="double(float(robustScaler(ackRatePerMs)))" operator="lessOrEqual" value="-0.9999577152890222"/>
											<Node score="8.0">
												<SimplePredicate field="double(float(robustScaler(ackRatePerMs)))" operator="lessOrEqual" value="-0.9999781451798795"/>
											</Node>
										</Node>
									</Node>
									<Node score="7.0">
										<SimplePredicate field="double(float(interArrivalTimeMin))" operator="lessOrEqual" value="5419.333600169669"/>
									</Node>
								</Node>
								<Node score="7.0">
									<SimplePredicate field="double(float(robustScaler(totalPacketsUpstream)))" operator="lessOrEqual" value="0.9608999183219391"/>
									<Node score="8.0">
										<SimplePredicate field="double(float(robustScaler(interArrivalTimeMean)))" operator="lessOrEqual" value="44910.60499262512"/>
										<Node score="9.851655907139286">
											<SimplePredicate field="double(float(finCount))" operator="lessOrEqual" value="0.26793393551741446"/>
											<Node score="9.0">
												<SimplePredicate field="double(float(robustScaler(avgPacketIntervalMs)))" operator="lessOrEqual" value="8.693309036410255"/>
											</Node>
										</Node>
									</Node>
								</Node>
								<Node score="8.0">
									<SimplePredicate field="double(float(robustScaler(ratioBytesUpDown)))" operator="lessOrEqual" value="0.2998118259172624"/>
									<Node score="9.207392357589622">
										<SimplePredicate field="double(float(robustScaler(interArrivalTimeMean)))" operator="lessOrEqual" value="17088.138169359016"/>
										<Node score="9.0">
											<SimplePredicate field="double(float(stddevPacketLength))" operator="lessOrEqual" value="8.211504247509"/>
										</Node>
									</Node>
								</Node>
							</Node>
						</Node>
					</Node>
				</TreeModel>
			</Segment>
			<Segment id="6">
				<True/>
				<TreeModel functionName="regression" missingValueStrategy="nullPrediction" noTrueChildStrategy="returnLastPrediction">
					<MiningSchema>
						<MiningField name="double(float(robustScaler(minPacketLength)))"/>
						<MiningField name="double(float(robustScaler(maxPacketLength)))"/>
						<MiningField name="double(float(robustScaler(ackRatePerMs)))"/>
						<MiningField name="double(float(interArrivalTimeMin))"/>
						<MiningField name="double(float(iatMaxToMeanRatio))"/>
						<MiningField name="double(float(robustScaler(srcPort)))"/>
						<MiningField name="double(float(synCount))"/>
						<MiningField name="double(float(packetsPerSecond))"/>
						<MiningField name="double(float(pshCount))"/>
						<MiningField name="double(float(robustScaler(dstPort)))"/>
						<MiningField name="double(float(synFinDiff))"/>
						<MiningField name="double(float(robustScaler(meanPacketLength)))"/>
						<MiningField name="double(float(robustScaler(totalPacketsUpstream)))"/>
						<MiningField name="double(float(bytesPerSecond))"/>
						<MiningField name="double(float(robustScaler(interArrivalTimeMean)))"/>
						<MiningField name="double(float(finCount))"/>
					</MiningSchema>
					<Node score="4.0">
						<True/>
						<Node score="4.0">
							<SimplePredicate field="double(float(robustScaler(srcPort)))" operator="lessOrEqual" value="0.8985704438353052"/>
							<Node score="5.0">
								<SimplePredicate field="double(float(iatMaxToMeanRatio))" operator="lessOrEqual" value="0.21436173515555193"/>
								<Node score="6.0">
									<SimplePredicate field="double(float(synFinDiff))" operator="lessOrEqual" value="0.9832903537821445"/>
									<Node score="7.0">
										<SimplePredicate field="double(float(robustScaler(srcPort)))" operator="lessOrEqual" value="0.4955522337671534"/>
										<Node score="9.851655907139286">
											<SimplePredicate field="double(float(pshCount))" operator="lessOrEqual" value="0.8887885352078772"/>
											<Node score="10.706640488004599">
												<SimplePredicate field="double(float(robustScaler(ackRatePerMs)))" operator="lessOrEqual" value="-0.5324002651182935"/>
												<Node score="11.748880484475505">
													<SimplePredicate field="double(float(robustScaler(totalPacketsUpstream)))" operator="lessOrEqual" value="-0.37495309644143704"/>
													<Node score="8.0">
														<SimplePredicate field="double(float(robustScaler(minPacketLength)))" operator="lessOrEqual" value="-0.459940487103627"/>
													</Node>
												</Node>
												<Node score="14.021342222159635">
													<SimplePredicate field="double(float(robustScaler(meanPacketLength)))" operator="lessOrEqual" value="9.225268943985474"/>
												</Node>
											</Node>
											<Node score="10.706640488004599">
												<SimplePredicate field="double(float(robustScaler(srcPort)))" operator="lessOrEqual" value="-0.0032808640483307913"/>
												<Node score="13.241133972149143">
													<SimplePredicate field="double(float(robustScaler(srcPort)))" operator="lessOrEqual" value="-0.007954832598407844"/>
												</Node>
											</Node>
											<Node score="9.207392357589622">
												<SimplePredicate field="double(float(robustScaler(dstPort)))" operator="lessOrEqual" value="0.8738130094776129"/>
											</Node>
										</Node>
										<Node score="7.0">
											<SimplePredicate field="double(float(robustScaler(maxPacketLength)))" operator="lessOrEqual" value="152.68972351462995"/>
											<Node score="8.0">
												<SimplePredicate field="double(float(robustScaler(meanPacketLength)))" operator="lessOrEqual" value="102.77739735058606"/>
												<Node score="13.423472758258828">
													<SimplePredicate field="double(float(robustScaler(minPacketLength)))" operator="lessOrEqual" value="85.30715313189809"/>
												</Node>
											</Node>
										</Node>
									</Node>
									<Node score="8.0">
										<SimplePredicate field="double(float(pshCount))" operator="lessOrEqual" value="0.15282365128063766"/>
										<Node score="8.0">
											<SimplePredicate field="double(float(robustScaler(minPacketLength)))" operator="lessOrEqual" value="0.3995147262647928"/>
											<Node score="8.0">
												<SimplePredicate field="double(float(finCount))" operator="lessOrEqual" value="0.6030973943896114"/>
												<Node score="11.296251627913692">
													<SimplePredicate field="double(float(robustScaler(dstPort)))" operator="lessOrEqual" value="-0.0062909331221420355"/>
												</Node>
											</Node>
											<Node score="9.0">
												<SimplePredicate field="double(float(robustScaler(srcPort)))" operator="lessOrEqual" value="0.817480693625986"/>
											</Node>
										</Node>
										<Node score="9.207392357589622">
											<SimplePredicate field="double(float(robustScaler(srcPort)))" operator="lessOrEqual" value="0.8267548940912615"/>
											<Node score="8.0">
												<SimplePredicate field="double(float(robustScaler(maxPacketLength)))" operator="lessOrEqual" value="0.39665376434669564"/>
											</Node>
										</Node>
										<Node score="9.207392357589622">
											<SimplePredicate field="double(float(robustScaler(srcPort)))" operator="lessOrEqual" value="0.8808869588070964"/>
										</Node>
									</Node>
									<Node score="11.023664553973461">
										<SimplePredicate field="double(float(robustScaler(maxPacketLength)))" operator="lessOrEqual" value="49.85957604301532"/>
										<Node score="8.0">
											<SimplePredicate field="double(float(robustScaler(srcPort)))" operator="lessOrEqual" value="0.7321707283862373"/>
											<Node score="9.0">
												<SimplePredicate field="double(float(robustScaler(maxPacketLength)))" operator="lessOrEqual" value="-0.09428790218562896"/>
											</Node>
										</Node>
										<Node score="8.0">
											<SimplePredicate field="double(float(robustScaler(minPacketLength)))" operator="lessOrEqual" value="0.02241078985463703"/>
										</Node>
									</Node>
								</Node>
								<Node score="6.0">
									<SimplePredicate field="double(float(robustScaler(meanPacketLength)))" operator="lessOrEqual" value="0.14878484887547555"/>
									<Node score="10.327020052042847">
										<SimplePredicate field="double(float(robustScaler(srcPort)))" operator="lessOrEqual" value="-0.004317275817755648"/>
										<Node score="8.0">
											<SimplePredicate field="double(float(robustScaler(dstPort)))" operator="lessOrEqual" value="0.8460449765145168"/>
											<Node score="7.0">
												<SimplePredicate field="double(float(robustScaler(dstPort)))" operator="lessOrEqual" value="0.749916592726169"/>
											</Node>
										</Node>
										<Node score="7.0">
											<SimplePredicate field="double(float(robustScaler(dstPort)))" operator="lessOrEqual" value="0.8869126947289733"/>
										</Node>
										<Node score="8.0">
											<SimplePredicate field="double(float(robustScaler(dstPort)))" operator="lessOrEqual" value="1.0312316700959197"/>
										</Node>
									</Node>
								</Node>
								<Node score="7.0">
									<SimplePredicate field="double(float(robustScaler(dstPort)))" operator="lessOrEqual" value="-0.003513938596180699"/>
									<Node score="6.0">
										<SimplePredicate field="double(float(robustScaler(srcPort)))" operator="lessOrEqual" value="0.7975315783714683"/>
									</Node>
								</Node>
							</Node>
							<Node score="4.0">
								<SimplePredicate field="double(float(interArrivalTimeMin))" operator="lessOrEqual" value="85690.77803544737"/>
								<Node score="6.0">
									<SimplePredicate field="double(float(robustScaler(maxPacketLength)))" operator="lessOrEqual" value="121.46098176769318"/>
									<Node score="6.0">
										<SimplePredicate field="double(float(robustScaler(dstPort)))" operator="lessOrEqual" value="0.20742177767388945"/>
									</Node>
									<Node score="7.0">
										<SimplePredicate field="double(float(packetsPerSecond))" operator="lessOrEqual" value="0.9990870672984284"/>
										<Node score="9.0">
											<SimplePredicate field="double(float(synFinDiff))" operator="lessOrEqual" value="1.0848956080548908"/>
											<Node score="12.427187187583282">
												<SimplePredicate field="double(float(synCount))" operator="lessOrEqual" value="0.8019228506842269"/>
											</Node>
										</Node>
									</Node>
								</Node>
							</Node>
							<Node score="6.0">
								<SimplePredicate field="double(float(robustScaler(meanPacketLength)))" operator="lessOrEqual" value="9.041438484417974"/>
								<Node score="6.0">
									<SimplePredicate field="double(float(bytesPerSecond))" operator="lessOrEqual" value="0.8241524322937039"/>
								</Node>
							</Node>
						</Node>
						<Node score="4.0">
							<SimplePredicate field="double(float(robustScaler(ackRatePerMs)))" operator="lessOrEqual" value="-0.06454635600771119"/>
							<Node score="5.0">
								<SimplePredicate field="double(float(robustScaler(dstPort)))" operator="lessOrEqual" value="0.06022853971985567"/>
								<Node score="6.0">
									<SimplePredicate field="double(float(bytesPerSecond))" operator="lessOrEqual" value="1.0318936034436663"/>
									<Node score="9.0">
										<SimplePredicate field="double(float(robustScaler(dstPort)))" operator="lessOrEqual" value="-0.005987722266053896"/>
										<Node score="7.0">
											<SimplePredicate field="double(float(synCount))" operator="lessOrEqual" value="0.8754641129055359"/>
											<Node score="8.0">
												<SimplePredicate field="double(float(robustScaler(maxPacketLength)))" operator="lessOrEqual" value="0.9072964654585428"/>
												<Node score="12.116888542066473">
													<SimplePredicate field="double(float(robustScaler(maxPacketLength)))" operator="lessOrEqual" value="0.5362609991071526"/>
												</Node>
											</Node>
										</Node>
										<Node score="8.0">
											<SimplePredicate field="double(float(robustScaler(dstPort)))" operator="lessOrEqual" value="-0.0077295070619628915"/>
											<Node score="9.207392357589622">
												<SimplePredicate field="double(float(robustScaler(srcPort)))" operator="lessOrEqual" value="1.2784289948095513"/>
											</Node>
										</Node>
										<Node score="8.0">
											<SimplePredicate field="double(float(robustScaler(srcPort)))" operator="lessOrEqual" value="1.0403087198929333"/>
										</Node>
									</Node>
								</Node>
								<Node score="6.0">
									<SimplePredicate field="double(float(robustScaler(interArrivalTimeMean)))" operator="lessOrEqual" value="293952.0058062384"/>
									<Node score="9.207392357589622">
										<SimplePredicate field="double(float(bytesPerSecond))" operator="lessOrEqual" value="5.053145387742778"/>
										<Node score="9.851655907139286">
											<SimplePredicate field="double(float(bytesPerSecond))" operator="lessOrEqual" value="3.2438950685791625"/>
											<Node score="8.0">
												<SimplePredicate field="double(float(packetsPerSecond))" operator="lessOrEqual" value="0.05631707365486791"/>
											</Node>
										</Node>
										<Node score="8.0">
											<SimplePredicate field="double(float(robustScaler(srcPort)))" operator="lessOrEqual" value="0.9517558542157035"/>
										</Node>
									</Node>
								</Node>
							</Node>
							<Node score="5.0">
								<SimplePredicate field="double(float(robustScaler(srcPort)))" operator="lessOrEqual" value="1.0967526507882315"/>
							</Node>
						</Node>
						<Node score="5.0">
							<SimplePredicate field="double(float(robustScaler(maxPacketLength)))" operator="lessOrEqual" value="10.680139238698242"/>
							<Node score="7.0">
								<SimplePredicate field="double(float(robustScaler(meanPacketLength)))" operator="lessOrEqual" value="1.491494176184969"/>
								<Node score="7.0">
									<SimplePredicate field="double(float(robustScaler(dstPort)))" operator="lessOrEqual" value="-0.008104180315256447"/>
									<Node score="9.207392357589622">
										<SimplePredicate field="double(float(finCount))" operator="lessOrEqual" value="0.4084221298845588"/>
										<Node score="8.0">
											<SimplePredicate field="double(float(robustScaler(srcPort)))" operator="lessOrEqual" value="0.9900765687865329"/>
										</Node>
										<Node score="9.851655907139286">
											<SimplePredicate field="double(float(robustScaler(maxPacketLength)))" operator="lessOrEqual" value="-0.14840934500287695"/>
										</Node>
									</Node>
									<Node score="8.0">
										<SimplePredicate field="double(float(robustScaler(srcPort)))" operator="lessOrEqual" value="1.196956427370303"/>
									</Node>
								</Node>
								<Node score="8.0">
									<SimplePredicate field="double(float(robustScaler(maxPacketLength)))" operator="lessOrEqual" value="-0.33433123022663785"/>
									<Node score="10.327020052042847">
										<SimplePredicate field="double(float(robustScaler(dstPort)))" operator="lessOrEqual" value="-0.0020079899258121457"/>
										<Node score="10.327020052042847">
											<SimplePredicate field="double(float(finCount))" operator="lessOrEqual" value="0.632256133310616"/>
										</Node>
									</Node>
									<Node score="11.023664553973461">
										<SimplePredicate field="double(float(finCount))" operator="lessOrEqual" value="0.9416450923036994"/>
									</Node>
								</Node>
							</Node>
						</Node>
					</Node>
				</TreeModel>
			</Segment>
			<Segment id="7">
				<True/>
				<TreeModel functionName="regression" missingValueStrategy="nullPrediction" noTrueChildStrategy="returnLastPrediction">
					<MiningSchema>
						<MiningField name="double(float(robustScaler(minPacketLength)))"/>
						<MiningField name="double(float(robustScaler(maxPacketLength)))"/>
						<MiningField name="double(float(robustScaler(ackRatePerMs)))"/>
						<MiningField name="double(float(stddevPacketLength))"/>
						<MiningField name="double(float(interArrivalTimeMin))"/>
						<MiningField name="double(float(robustScaler(avgPacketIntervalMs)))"/>
						<MiningField name="double(float(robustScaler(srcPort)))"/>
						<MiningField name="double(float(packetsPerSecond))"/>
						<MiningField name="double(float(robustScaler(dstPort)))"/>
						<MiningField name="double(float(synFinDiff))"/>
						<MiningField name="double(float(robustScaler(meanPacketLength)))"/>
						<MiningField name="double(float(robustScaler(ratioBytesUpDown)))"/>
						<MiningField name="double(float(robustScaler(ackCount)))"/>
						<MiningField name="double(float(robustScaler(interArrivalTimeMean)))"/>
						<MiningField name="double(float(finCount))"/>
					</MiningSchema>
					<Node score="5.0">
						<True/>
						<Node score="3.0">
							<SimplePredicate field="double(float(robustScaler(minPacketLength)))" operator="lessOrEqual" value="11.90774273226357"/>
							<Node score="5.0">
								<SimplePredicate field="double(float(robustScaler(ratioBytesUpDown)))" operator="lessOrEqual" value="10.19227498803102"/>
								<Node score="6.0">
									<SimplePredicate field="double(float(packetsPerSecond))" operator="lessOrEqual" value="0.11547944663402475"/>
									<Node score="11.748880484475505">
										<SimplePredicate field="double(float(robustScaler(avgPacketIntervalMs)))" operator="lessOrEqual" value="4.551693924749855"/>
										<Node score="9.0">
											<SimplePredicate field="double(float(robustScaler(srcPort)))" operator="lessOrEqual" value="0.19845869240449554"/>
											<Node score="10.706640488004599">
												<SimplePredicate field="double(float(robustScaler(minPacketLength)))" operator="lessOrEqual" value="1.6992829883201976"/>
												<Node score="10.327020052042847">
													<SimplePredicate field="double(float(robustScaler(ackRatePerMs)))" operator="lessOrEqual" value="-0.24768255476266265"/>
													<Node score="12.27809078322522">
														<SimplePredicate field="double(float(robustScaler(srcPort)))" operator="lessOrEqual" value="0.011236822531138557"/>
													</Node>
												</Node>
												<Node score="15.24022243057161">
													<SimplePredicate field="double(float(finCount))" operator="lessOrEqual" value="0.6946838021719287"/>
												</Node>
											</Node>
											<Node score="8.0">
												<SimplePredicate field="double(float(robustScaler(minPacketLength)))" operator="lessOrEqual" value="4.979636327330898"/>
												<Node score="12.565879322366916">
													<SimplePredicate field="double(float(robustScaler(minPacketLength)))" operator="lessOrEqual" value="3.77904529039606"/>
												</Node>
											</Node>
											<Node score="9.207392357589622">
												<SimplePredicate field="double(float(robustScaler(maxPacketLength)))" operator="lessOrEqual" value="5.1064083263969575"/>
											</Node>
										</Node>
										<Node score="9.0">
											<SimplePredicate field="double(float(robustScaler(ackCount)))" operator="lessOrEqual" value="-0.18272254158869505"/>
											<Node score="9.0">
												<SimplePredicate field="double(float(synFinDiff))" operator="lessOrEqual" value="0.4238848124741972"/>
												<Node score="12.565879322366916">
													<SimplePredicate field="double(float(robustScaler(meanPacketLength)))" operator="lessOrEqual" value="0.6788651163972779"/>
												</Node>
											</Node>
											<Node score="11.941419697609339">
												<SimplePredicate field="double(float(robustScaler(srcPort)))" operator="lessOrEqual" value="1.232271096954422"/>
											</Node>
										</Node>
										<Node score="11.296251627913692">
											<SimplePredicate field="double(float(synFinDiff))" operator="lessOrEqual" value="-0.9367616241503328"/>
											<Node score="10.706640488004599">
												<SimplePredicate field="double(float(robustScaler(dstPort)))" operator="lessOrEqual" value="-0.008549048331002727"/>
											</Node>
										</Node>
										<Node score="14.93764967814946">
											<SimplePredicate field="double(float(robustScaler(meanPacketLength)))" operator="lessOrEqual" value="0.028513049925390388"/>
										</Node>
									</Node>
									<Node score="6.0">
										<SimplePredicate field="double(float(robustScaler(ratioBytesUpDown)))" operator="lessOrEqual" value="0.9601254624644986"/>
										<Node score="8.0">
											<SimplePredicate field="double(float(robustScaler(minPacketLength)))" operator="lessOrEqual" value="1.1966538815604273"/>
											<Node score="10.327020052042847">
												<SimplePredicate field="double(float(robustScaler(srcPort)))" operator="lessOrEqual" value="0.02651447845202215"/>
												<Node score="10.706640488004599">
													<SimplePredicate field="double(float(robustScaler(ackCount)))" operator="lessOrEqual" value="0.6673970789031112"/>
												</Node>
											</Node>
											<Node score="10.706640488004599">
												<SimplePredicate field="double(float(interArrivalTimeMin))" operator="lessOrEqual" value="787815.2456930826"/>
											</Node>
										</Node>
									</Node>
								</Node>
								<Node score="5.0">
									<SimplePredicate field="double(float(robustScaler(interArrivalTimeMean)))" operator="lessOrEqual" value="3970.6889784069217"/>
									<Node score="6.0">
										<SimplePredicate field="double(float(robustScaler(meanPacketLength)))" operator="lessOrEqual" value="15.496154033122293"/>
										<Node score="8.0">
											<SimplePredicate field="double(float(stddevPacketLength))" operator="lessOrEqual" value="253.47780647544485"/>
											<Node score="7.0">
												<SimplePredicate field="double(float(packetsPerSecond))" operator="lessOrEqual" value="0.6545002162872307"/>
											</Node>
											<Node score="10.327020052042847">
												<SimplePredicate field="double(float(robustScaler(ackRatePerMs)))" operator="lessOrEqual" value="-0.9937154525464373"/>
											</Node>
										</Node>
									</Node>
								</Node>
								<Node score="7.0">
									<SimplePredicate field="double(float(finCount))" operator="lessOrEqual" value="0.29657209212732133"/>
									<Node score="6.0">
										<SimplePredicate field="double(float(robustScaler(meanPacketLength)))" operator="lessOrEqual" value="-0.19314629583727805"/>
									</Node>
								</Node>
							</Node>
						</Node>
						<Node score="2.0">
							<SimplePredicate field="double(float(robustScaler(ackCount)))" operator="lessOrEqual" value="-0.4862959312676899"/>
						</Node>
						<Node score="4.0">
							<SimplePredicate field="double(float(robustScaler(dstPort)))" operator="lessOrEqual" value="0.9851320575377042"/>
							<Node score="6.0">
								<SimplePredicate field="double(float(robustScaler(minPacketLength)))" operator="lessOrEqual" value="73.73089318743703"/>
								<Node score="7.0">
									<SimplePredicate field="double(float(robustScaler(dstPort)))" operator="lessOrEqual" value="0.09969706381962998"/>
									<Node score="6.0">
										<SimplePredicate field="double(float(robustScaler(srcPort)))" operator="lessOrEqual" value="1.0218496815149927"/>
									</Node>
								</Node>
							</Node>
						</Node>
						<Node score="7.0">
							<SimplePredicate field="double(float(robustScaler(minPacketLength)))" operator="lessOrEqual" value="48.84654016569918"/>
							<Node score="6.0">
								<SimplePredicate field="double(float(robustScaler(minPacketLength)))" operator="lessOrEqual" value="17.679211878253952"/>
							</Node>
							<Node score="6.0">
								<SimplePredicate field="double(float(robustScaler(maxPacketLength)))" operator="lessOrEqual" value="18.803130258561588"/>
							</Node>
							<Node score="8.0">
								<SimplePredicate field="double(float(robustScaler(maxPacketLength)))" operator="lessOrEqual" value="20.200612876445792"/>
							</Node>
						</Node>
					</Node>
				</TreeModel>
			</Segment>
			<Segment id="8">
				<True/>
				<TreeModel functionName="regression" missingValueStrategy="nullPrediction" noTrueChildStrategy="returnLastPrediction">
					<MiningSchema>
						<MiningField name="double(float(robustScaler(minPacketLength)))"/>
						<MiningField name="double(float(interArrivalTimeMax))"/>
						<MiningField name="double(float(interArrivalTimeMin))"/>
						<MiningField name="double(float(robustScaler(avgPacketIntervalMs)))"/>
						<MiningField name="double(float(robustScaler(srcPort)))"/>
						<MiningField name="double(float(totalPacketsDownstream))"/>
						<MiningField name="double(float(packetsPerSecond))"/>
						<MiningField name="double(float(pshCount))"/>
						<MiningField name="double(float(robustScaler(meanPacketLength)))"/>
						<MiningField name="double(float(robustScaler(ratioBytesUpDown)))"/>
						<MiningField name="double(float(robustScaler(ackCount)))"/>
						<MiningField name="double(float(bytesPerSecond))"/>
						<MiningField name="double(float(robustScaler(interArrivalTimeMean)))"/>
						<MiningField name="double(float(finCount))"/>
					</MiningSchema>
					<Node score="3.0">
						<True/>
						<Node score="4.0">
							<SimplePredicate field="double(float(robustScaler(ratioBytesUpDown)))" operator="lessOrEqual" value="-0.3634592810878823"/>
							<Node score="4.0">
								<SimplePredicate field="double(float(robustScaler(srcPort)))" operator="lessOrEqual" value="0.4645168408480127"/>
								<Node score="3.0">
									<SimplePredicate field="double(float(interArrivalTimeMax))" operator="lessOrEqual" value="28681.83914490083"/>
								</Node>
								<Node score="5.0">
									<SimplePredicate field="double(float(robustScaler(interArrivalTimeMean)))" operator="lessOrEqual" value="68164.43020171273"/>
								</Node>
							</Node>
							<Node score="4.0">
								<SimplePredicate field="double(float(interArrivalTimeMin))" operator="lessOrEqual" value="104936.55330423012"/>
								<Node score="5.0">
									<SimplePredicate field="double(float(robustScaler(ackCount)))" operator="lessOrEqual" value="1.4053566075886397"/>
								</Node>
							</Node>
						</Node>
						<Node score="4.0">
							<SimplePredicate field="double(float(robustScaler(interArrivalTimeMean)))" operator="lessOrEqual" value="692283.1825153922"/>
							<Node score="4.0">
								<SimplePredicate field="double(float(totalPacketsDownstream))" operator="lessOrEqual" value="0.24649520369549058"/>
								<Node score="5.0">
									<SimplePredicate field="double(float(interArrivalTimeMin))" operator="lessOrEqual" value="616831.8305029914"/>
									<Node score="8.0">
										<SimplePredicate field="double(float(interArrivalTimeMin))" operator="lessOrEqual" value="184659.428089041"/>
										<Node score="11.023664553973461">
											<SimplePredicate field="double(float(robustScaler(interArrivalTimeMean)))" operator="lessOrEqual" value="7386.0914112227465"/>
											<Node score="11.748880484475505">
												<SimplePredicate field="double(float(robustScaler(ackCount)))" operator="lessOrEqual" value="-0.8932240167135485"/>
												<Node score="16.015922069205786">
													<SimplePredicate field="double(float(robustScaler(minPacketLength)))" operator="lessOrEqual" value="2.8891078262526935"/>
												</Node>
											</Node>
											<Node score="16.842743175202084">
												<SimplePredicate field="double(float(robustScaler(meanPacketLength)))" operator="lessOrEqual" value="15.88047176804773"/>
											</Node>
										</Node>
										<Node score="8.0">
											<SimplePredicate field="double(float(packetsPerSecond))" operator="lessOrEqual" value="0.021813812775270634"/>
										</Node>
									</Node>
								</Node>
							</Node>
							<Node score="6.0">
								<SimplePredicate field="double(float(pshCount))" operator="lessOrEqual" value="1.743751901082579"/>
								<Node score="8.0">
									<SimplePredicate field="double(float(robustScaler(interArrivalTimeMean)))" operator="lessOrEqual" value="42063.0533447047"/>
									<Node score="7.0">
										<SimplePredicate field="double(float(packetsPerSecond))" operator="lessOrEqual" value="0.16095383581343464"/>
										<Node score="9.0">
											<SimplePredicate field="double(float(finCount))" operator="lessOrEqual" value="0.43723127266263184"/>
											<Node score="8.0">
												<SimplePredicate field="double(float(bytesPerSecond))" operator="lessOrEqual" value="1.7523164316880915"/>
											</Node>
										</Node>
									</Node>
									<Node score="8.0">
										<SimplePredicate field="double(float(robustScaler(avgPacketIntervalMs)))" operator="lessOrEqual" value="6.784459897195918"/>
									</Node>
								</Node>
							</Node>
						</Node>
					</Node>
				</TreeModel>
			</Segment>
			<Segment id="9">
				<True/>
				<TreeModel functionName="regression" missingValueStrategy="nullPrediction" noTrueChildStrategy="returnLastPrediction">
					<MiningSchema>
						<MiningField name="double(float(robustScaler(minPacketLength)))"/>
						<MiningField name="double(float(interArrivalTimeMax))"/>
						<MiningField name="double(float(robustScaler(maxPacketLength)))"/>
						<MiningField name="double(float(stddevPacketLength))"/>
						<MiningField name="double(float(iatMaxToMeanRatio))"/>
						<MiningField name="double(float(robustScaler(avgPacketIntervalMs)))"/>
						<MiningField name="double(float(robustScaler(srcPort)))"/>
						<MiningField name="double(float(synCount))"/>
						<MiningField name="double(float(totalPacketsDownstream))"/>
						<MiningField name="double(float(packetsPerSecond))"/>
						<MiningField name="double(float(pshCount))"/>
						<MiningField name="double(float(robustScaler(dstPort)))"/>
						<MiningField name="double(float(synFinDiff))"/>
						<MiningField name="double(float(robustScaler(meanPacketLength)))"/>
						<MiningField name="double(float(robustScaler(ackCount)))"/>
						<MiningField name="double(float(robustScaler(totalPacketsUpstream)))"/>
						<MiningField name="double(float(rstCount))"/>
						<MiningField name="double(float(finCount))"/>
					</MiningSchema>
					<Node score="5.0">
						<True/>
						<Node score="3.0">
							<SimplePredicate field="double(float(robustScaler(avgPacketIntervalMs)))" operator="lessOrEqual" value="0.8407073636328242"/>
							<Node score="4.0">
								<SimplePredicate field="double(float(robustScaler(ackCount)))" operator="lessOrEqual" value="-0.36677324137034506"/>
								<Node score="6.0">
									<SimplePredicate field="double(float(robustScaler(minPacketLength)))" operator="lessOrEqual" value="12.577156399389725"/>
									<Node score="7.0">
										<SimplePredicate field="double(float(robustScaler(maxPacketLength)))" operator="lessOrEqual" value="2.4948182439408826"/>
										<Node score="6.0">
											<SimplePredicate field="double(float(robustScaler(dstPort)))" operator="lessOrEqual" value="0.044985295006510044"/>
											<Node score="11.296251627913692">
												<SimplePredicate field="double(float(robustScaler(meanPacketLength)))" operator="lessOrEqual" value="0.8887676077651898"/>
												<Node score="13.744698479920103">
													<SimplePredicate field="double(float(synCount))" operator="lessOrEqual" value="0.23530822304790291"/>
													<Node score="8.0">
														<SimplePredicate field="double(float(robustScaler(minPacketLength)))" operator="lessOrEqual" value="0.25984869341254707"/>
													</Node>
												</Node>
												<Node score="10.327020052042847">
													<SimplePredicate field="double(float(robustScaler(dstPort)))" operator="lessOrEqual" value="-0.007801618402258369"/>
												</Node>
											</Node>
										</Node>
										<Node score="10.706640488004599">
											<SimplePredicate field="double(float(robustScaler(meanPacketLength)))" operator="lessOrEqual" value="1.4186841731012587"/>
											<Node score="8.0">
												<SimplePredicate field="double(float(robustScaler(minPacketLength)))" operator="lessOrEqual" value="0.9939900344997951"/>
											</Node>
											<Node score="11.296251627913692">
												<SimplePredicate field="double(float(robustScaler(minPacketLength)))" operator="lessOrEqual" value="1.7884436005110185"/>
											</Node>
										</Node>
										<Node score="9.0">
											<SimplePredicate field="double(float(robustScaler(dstPort)))" operator="lessOrEqual" value="1.1888211147575478"/>
											<Node score="10.327020052042847">
												<SimplePredicate field="double(float(robustScaler(dstPort)))" operator="lessOrEqual" value="0.9630864765167179"/>
											</Node>
										</Node>
									</Node>
									<Node score="6.0">
										<SimplePredicate field="double(float(robustScaler(dstPort)))" operator="lessOrEqual" value="1.1075049813600157"/>
										<Node score="7.0">
											<SimplePredicate field="double(float(robustScaler(meanPacketLength)))" operator="lessOrEqual" value="3.0816333308348627"/>
										</Node>
									</Node>
								</Node>
							</Node>
							<Node score="7.0">
								<SimplePredicate field="double(float(robustScaler(minPacketLength)))" operator="lessOrEqual" value="77.73627752407894"/>
								<Node score="8.0">
									<SimplePredicate field="double(float(pshCount))" operator="lessOrEqual" value="0.44016213735573095"/>
									<Node score="7.0">
										<SimplePredicate field="double(float(robustScaler(meanPacketLength)))" operator="lessOrEqual" value="-0.3091554393198553"/>
										<Node score="12.116888542066473">
											<SimplePredicate field="double(float(finCount))" operator="lessOrEqual" value="0.1960258745569856"/>
											<Node score="10.327020052042847">
												<SimplePredicate field="double(float(robustScaler(srcPort)))" operator="lessOrEqual" value="0.9202238433097052"/>
												<Node score="9.851655907139286">
													<SimplePredicate field="double(float(robustScaler(dstPort)))" operator="lessOrEqual" value="-0.00827216879628394"/>
												</Node>
											</Node>
											<Node score="12.427187187583282">
												<SimplePredicate field="double(float(robustScaler(srcPort)))" operator="lessOrEqual" value="1.1097181462600652"/>
											</Node>
										</Node>
										<Node score="9.0">
											<SimplePredicate field="double(float(robustScaler(dstPort)))" operator="lessOrEqual" value="-0.0077191463528482294"/>
											<Node score="9.207392357589622">
												<SimplePredicate field="double(float(robustScaler(srcPort)))" operator="lessOrEqual" value="1.108605867483222"/>
											</Node>
										</Node>
									</Node>
									<Node score="9.851655907139286">
										<SimplePredicate field="double(float(synCount))" operator="lessOrEqual" value="0.955015845575843"/>
										<Node score="8.0">
											<SimplePredicate field="double(float(robustScaler(srcPort)))" operator="lessOrEqual" value="-0.0035647048803595866"/>
											<Node score="13.817533633240295">
												<SimplePredicate field="double(float(rstCount))" operator="lessOrEqual" value="0.6352731183335526"/>
											</Node>
										</Node>
										<Node score="9.207392357589622">
											<SimplePredicate field="double(float(robustScaler(dstPort)))" operator="lessOrEqual" value="0.9567952954175688"/>
										</Node>
									</Node>
									<Node score="9.0">
										<SimplePredicate field="double(float(robustScaler(dstPort)))" operator="lessOrEqual" value="0.901269138637106"/>
										<Node score="9.0">
											<SimplePredicate field="double(float(robustScaler(dstPort)))" operator="lessOrEqual" value="0.8178171993897456"/>
										</Node>
									</Node>
									<Node score="10.327020052042847">
										<SimplePredicate field="double(float(robustScaler(srcPort)))" operator="lessOrEqual" value="-0.0018334194324664032"/>
									</Node>
								</Node>
								<Node score="6.0">
									<SimplePredicate field="double(float(robustScaler(maxPacketLength)))" operator="lessOrEqual" value="15.676841193019241"/>
									<Node score="7.0">
										<SimplePredicate field="double(float(robustScaler(maxPacketLength)))" operator="lessOrEqual" value="5.780084880747478"/>
										<Node score="14.37552326076934">
											<SimplePredicate field="double(float(robustScaler(minPacketLength)))" operator="lessOrEqual" value="3.975232517436701"/>
											<Node score="11.941419697609339">
												<SimplePredicate field="double(float(synFinDiff))" operator="lessOrEqual" value="-0.6251165771973862"/>
											</Node>
										</Node>
									</Node>
								</Node>
								<Node score="7.0">
									<SimplePredicate field="double(float(robustScaler(meanPacketLength)))" operator="lessOrEqual" value="36.29769389491239"/>
								</Node>
							</Node>
						</Node>
						<Node score="5.0">
							<SimplePredicate field="double(float(packetsPerSecond))" operator="lessOrEqual" value="0.2196283460535302"/>
							<Node score="7.116888542066474">
								<SimplePredicate field="double(float(iatMaxToMeanRatio))" operator="lessOrEqual" value="0.777704139173905"/>
							</Node>
							<Node score="6.0">
								<SimplePredicate field="double(float(robustScaler(meanPacketLength)))" operator="lessOrEqual" value="39.674929692475104"/>
								<Node score="6.0">
									<SimplePredicate field="double(float(synFinDiff))" operator="lessOrEqual" value="0.25109830836350944"/>
									<Node score="7.0">
										<SimplePredicate field="double(float(totalPacketsDownstream))" operator="lessOrEqual" value="1.5903472116172068"/>
										<Node score="8.0">
											<SimplePredicate field="double(float(stddevPacketLength))" operator="lessOrEqual" value="250.8652590118429"/>
											<Node score="11.748880484475505">
												<SimplePredicate field="double(float(robustScaler(maxPacketLength)))" operator="lessOrEqual" value="6.112440509954397"/>
											</Node>
										</Node>
									</Node>
								</Node>
								<Node score="8.0">
									<SimplePredicate field="double(float(interArrivalTimeMax))" operator="lessOrEqual" value="119264.83727680978"/>
									<Node score="7.0">
										<SimplePredicate field="double(float(robustScaler(avgPacketIntervalMs)))" operator="lessOrEqual" value="8.728548975008593"/>
									</Node>
								</Node>
							</Node>
						</Node>
						<Node score="4.0">
							<SimplePredicate field="double(float(robustScaler(totalPacketsUpstream)))" operator="lessOrEqual" value="0.45555821920538236"/>
							<Node score="6.0">
								<SimplePredicate field="double(float(robustScaler(meanPacketLength)))" operator="lessOrEqual" value="1.0370909686676366"/>
								<Node score="7.0">
									<SimplePredicate field="double(float(finCount))" operator="lessOrEqual" value="0.2629962588022446"/>
									<Node score="6.0">
										<SimplePredicate field="double(float(interArrivalTimeMax))" operator="lessOrEqual" value="2706.232962622881"/>
									</Node>
								</Node>
							</Node>
						</Node>
						<Node score="5.0">
							<SimplePredicate field="double(float(packetsPerSecond))" operator="lessOrEqual" value="0.6214946325850659"/>
						</Node>
					</Node>
				</TreeModel>
			</Segment>
			<Segment id="10">
				<True/>
				<TreeModel functionName="regression" missingValueStrategy="nullPrediction" noTrueChildStrategy="returnLastPrediction">
					<MiningSchema>
						<MiningField name="double(float(robustScaler(minPacketLength)))"/>
						<MiningField name="double(float(robustScaler(maxPacketLength)))"/>
						<MiningField name="double(float(stddevPacketLength))"/>
						<MiningField name="double(float(interArrivalTimeMin))"/>
						<MiningField name="double(float(robustScaler(avgPacketIntervalMs)))"/>
						<MiningField name="double(float(robustScaler(srcPort)))"/>
						<MiningField name="double(float(synCount))"/>
						<MiningField name="double(float(packetsPerSecond))"/>
						<MiningField name="double(float(pshCount))"/>
						<MiningField name="double(float(robustScaler(dstPort)))"/>
						<MiningField name="double(float(synFinDiff))"/>
						<MiningField name="double(float(robustScaler(meanPacketLength)))"/>
						<MiningField name="double(float(robustScaler(ratioBytesUpDown)))"/>
						<MiningField name="double(float(robustScaler(totalPacketsUpstream)))"/>
					</MiningSchema>
					<Node score="1.0">
						<True/>
						<Node score="4.0">
							<SimplePredicate field="double(float(interArrivalTimeMin))" operator="lessOrEqual" value="760545.2669112427"/>
							<Node score="4.0">
								<SimplePredicate field="double(float(synCount))" operator="lessOrEqual" value="0.8331835432132629"/>
								<Node score="4.0">
									<SimplePredicate field="double(float(robustScaler(meanPacketLength)))" operator="lessOrEqual" value="64.49658949915667"/>
									<Node score="15.50296672729164">
										<SimplePredicate field="double(float(interArrivalTimeMin))" operator="lessOrEqual" value="95304.32129404336"/>
										<Node score="6.0">
											<SimplePredicate field="double(float(robustScaler(ratioBytesUpDown)))" operator="lessOrEqual" value="-0.588381661090925"/>
											<Node score="8.0">
												<SimplePredicate field="double(float(robustScaler(maxPacketLength)))" operator="lessOrEqual" value="64.55651532733118"/>
												<Node score="8.0">
													<SimplePredicate field="double(float(packetsPerSecond))" operator="lessOrEqual" value="0.6454374008176897"/>
													<Node score="9.0">
														<SimplePredicate field="double(float(stddevPacketLength))" operator="lessOrEqual" value="971.8598738719727"/>
													</Node>
												</Node>
											</Node>
										</Node>
										<Node score="6.0">
											<SimplePredicate field="double(float(synFinDiff))" operator="lessOrEqual" value="-1.7355338249986683"/>
										</Node>
										<Node score="11.748880484475505">
											<SimplePredicate field="double(float(robustScaler(totalPacketsUpstream)))" operator="lessOrEqual" value="-0.45049213033658086"/>
											<Node score="8.0">
												<SimplePredicate field="double(float(robustScaler(minPacketLength)))" operator="lessOrEqual" value="-0.1952940093634567"/>
											</Node>
										</Node>
										<Node score="17.037664910350163">
											<SimplePredicate field="double(float(pshCount))" operator="lessOrEqual" value="0.9528161617707537"/>
										</Node>
									</Node>
								</Node>
							</Node>
							<Node score="6.0">
								<SimplePredicate field="double(float(robustScaler(avgPacketIntervalMs)))" operator="lessOrEqual" value="4.2984880223080575"/>
								<Node score="9.0">
									<SimplePredicate field="double(float(robustScaler(minPacketLength)))" operator="lessOrEqual" value="0.05275818950890196"/>
									<Node score="8.0">
										<SimplePredicate field="double(float(robustScaler(dstPort)))" operator="lessOrEqual" value="0.9876822761619879"/>
										<Node score="8.0">
											<SimplePredicate field="double(float(robustScaler(dstPort)))" operator="lessOrEqual" value="0.8361493979852985"/>
											<Node score="7.0">
												<SimplePredicate field="double(float(robustScaler(srcPort)))" operator="lessOrEqual" value="-0.008091270865518519"/>
											</Node>
										</Node>
										<Node score="7.0">
											<SimplePredicate field="double(float(robustScaler(dstPort)))" operator="lessOrEqual" value="0.8423130427271563"/>
										</Node>
									</Node>
									<Node score="7.0">
										<SimplePredicate field="double(float(robustScaler(srcPort)))" operator="lessOrEqual" value="-0.008928748716470933"/>
										<Node score="9.0">
											<SimplePredicate field="double(float(robustScaler(dstPort)))" operator="lessOrEqual" value="1.158662278906494"/>
											<Node score="8.0">
												<SimplePredicate field="double(float(robustScaler(dstPort)))" operator="lessOrEqual" value="1.1083563825273415"/>
											</Node>
										</Node>
									</Node>
									<Node score="7.0">
										<SimplePredicate field="double(float(robustScaler(dstPort)))" operator="lessOrEqual" value="1.0988004850768214"/>
									</Node>
									<Node score="8.0">
										<SimplePredicate field="double(float(robustScaler(dstPort)))" operator="lessOrEqual" value="1.131258108988564"/>
									</Node>
								</Node>
								<Node score="8.0">
									<SimplePredicate field="double(float(robustScaler(dstPort)))" operator="lessOrEqual" value="-3.288943058635703E-4"/>
									<Node score="7.0">
										<SimplePredicate field="double(float(robustScaler(dstPort)))" operator="lessOrEqual" value="-0.008636672697502132"/>
									</Node>
									<Node score="9.0">
										<SimplePredicate field="double(float(robustScaler(srcPort)))" operator="lessOrEqual" value="1.0196077746174486"/>
										<Node score="9.851655907139286">
											<SimplePredicate field="double(float(robustScaler(srcPort)))" operator="lessOrEqual" value="0.90856725653724"/>
										</Node>
									</Node>
								</Node>
							</Node>
							<Node score="5.0">
